{"version":1,"n_features":3,"classes":[0,1],"trees":[{"children_left":[-1],"children_right":[-1],"feature":[-2],"threshold":[-2.0],"values":[[1.0,0.0]]},{"children_left":[1,2,-1,-1,-1],"children_right":[4,3,-1,-1,-1],"feature":[2,2,-2,-2,-2],"threshold":[26.537400245666504,13.81981337070465,-2.0,-2.0,-2.0],"values":[[0.8333333333333334,0.16666666666666666],[0.4,0.6],[1.0,0.0],[0.0,1.0],[1.0,0.0]]},{"children_left":[1,-1,3,-1,-1],"children_right":[2,-1,4,-1,-1],"feature":[1,-2,1,-2,-2],"threshold":[0.6583000123500824,-2.0,0.6587499976158142,-2.0,-2.0],"values":[[0.8888888888888888,0.1111111111111111],[1.0,0.0],[0.6666666666666666,0.3333333333333333],[0.0,1.0],[1.0,0.0]]},{"children_left":[-1],"children_right":[-1],"feature":[-2],"threshold":[-2.0],"values":[[1.0,0.0]]},{"children_left":[1,2,-1,-1,-1],"children_right":[4,3,-1,-1,-1],"feature":[2,1,-2,-2,-2],"threshold":[26.551400184631348,2.8226194083690643,-2.0,-2.0,-2.0],"values":[[0.8888888888888888,0.1111111111111111],[0.75,0.25],[0.0,1.0],[1.0,0.0],[1.0,0.0]]},{"children_left":[1,-1,3,-1,-1],"children_right":[2,-1,4,-1,-1],"feature":[1,-2,1,-2,-2],"threshold":[0.6583000123500824,-2.0,0.6587499976158142,-2.0,-2.0],"values":[[0.9444444444444444,0.05555555555555555],[1.0,0.0],[0.8,0.2],[0.0,1.0],[1.0,0.0]]},{"children_left":[-1],"children_right":[-1],"feature":[-2],"threshold":[-2.0],"values":[[1.0,0.0]]},{"children_left":[-1],"children_right":[-1],"feature":[-2],"threshold":[-2.0],"values":[[1.0,0.0]]},{"children_left":[1,2,-1,-1,-1],"children_right":[4,3,-1,-1,-1],"feature":[2,1,-2,-2,-2],"threshold":[26.551400184631348,2.8226194083690643,-2.0,-2.0,-2.0],"values":[[0.9444444444444444,0.05555555555555555],[0.875,0.125],[0.0,1.0],[1.0,0.0],[1.0,0.0]]},{"children_left":[1,2,-1,-1,-1],"children_right":[4,3,-1,-1,-1],"feature":[0,1,-2,-2,-2],"threshold":[23.299999237060547,0.42650000005960464,-2.0,-2.0,-2.0],"values":[[0.8888888888888888,0.1111111111111111],[0.5,0.5],[1.0,0.0],[0.0,1.0],[1.0,0.0]]},{"children_left":[1,2,-1,-1,-1],"children_right":[4,3,-1,-1,-1],"feature":[0,2,-2,-2,-2],"threshold":[23.25,27.207449913024902,-2.0,-2.0,-2.0],"values":[[0.9444444444444444,0.05555555555555555],[0.5,0.5],[0.0,1.0],[1.0,0.0],[1.0,0.0]]},{"children_left":[1,2,-1,-1,-1],"children_right":[4,3,-1,-1,-1],"feature":[2,1,-2,-2,-2],"threshold":[26.537400245666504,2.8226194083690643,-2.0,-2.0,-2.0],"values":[[0.8333333333333334,0.16666666666666666],[0.4,0.6],[0.0,1.0],[1.0,0.0],[1.0,0.0]]},{"children_left":[1,2,-1,-1,-1],"children_right":[4,3,-1,-1,-1],"feature":[2,0,-2,-2,-2],"threshold":[26.551400184631348,23.824999809265137,-2.0,-2.0,-2.0],"values":[[0.9444444444444444,0.05555555555555555],[0.75,0.25],[0.0,1.0],[1.0,0.0],[1.0,0.0]]},{"children_left":[-1],"children_right":[-1],"feature":[-2],"threshold":[-2.0],"values":[[1.0,0.0]]},{"children_left":[1,-1,3,-1,-1],"children_right":[2,-1,4,-1,-1],"feature":[1,-2,1,-2,-2],"threshold":[0.6479499936103821,-2.0,2.8226194083690643,-2.0,-2.0],"values":[[0.9444444444444444,0.05555555555555555],[1.0,0.0],[0.8,0.2],[0.0,1.0],[1.0,0.0]]},{"children_left":[1,-1,3,-1,5,-1,-1],"children_right":[2,-1,4,-1,6,-1,-1],"feature":[1,-2,2,-2,0,-2,-2],"threshold":[0.6583000123500824,-2.0,13.807108879089355,-2.0,23.299999237060547,-2.0,-2.0],"values":[[0.9444444444444444,0.05555555555555555],[1.0,0.0],[0.8333333333333334,0.16666666666666666],[1.0,0.0],[0.5,0.5],[0.0,1.0],[1.0,0.0]]},{"children_left":[1,2,-1,-1,-1],"children_right":[4,3,-1,-1,-1],"feature":[0,2,-2,-2,-2],"threshold":[23.299999237060547,27.207449913024902,-2.0,-2.0,-2.0],"values":[[0.8888888888888888,0.1111111111111111],[0.5,0.5],[0.0,1.0],[1.0,0.0],[1.0,0.0]]},{"children_left":[1,2,-1,-1,-1],"children_right":[4,3,-1,-1,-1],"feature":[0,1,-2,-2,-2],"threshold":[23.25,0.6265999972820282,-2.0,-2.0,-2.0],"values":[[0.8888888888888888,0.1111111111111111],[0.6,0.4],[1.0,0.0],[0.0,1.0],[1.0,0.0]]},{"children_left":[1,-1,3,-1,-1],"children_right":[2,-1,4,-1,-1],"feature":[1,-2,0,-2,-2],"threshold":[0.6583000123500824,-2.0,23.299999237060547,-2.0,-2.0],"values":[[0.9444444444444444,0.05555555555555555],[1.0,0.0],[0.75,0.25],[0.0,1.0],[1.0,0.0]]},{"children_left":[1,2,-1,-1,-1],"children_right":[4,3,-1,-1,-1],"feature":[2,2,-2,-2,-2],"threshold":[26.551400184631348,26.326125144958496,-2.0,-2.0,-2.0],"values":[[0.8888888888888888,0.1111111111111111],[0.7777777777777778,0.2222222222222222],[1.0,0.0],[0.0,1.0],[1.0,0.0]]},{"children_left":[1,-1,3,-1,5,-1,-1],"children_right":[2,-1,4,-1,6,-1,-1],"feature":[1,-2,2,-2,2,-2,-2],"threshold":[0.6583000123500824,-2.0,13.81981337070465,-2.0,26.551400184631348,-2.0,-2.0],"values":[[0.9444444444444444,0.05555555555555555],[1.0,0.0],[0.8888888888888888,0.1111111111111111],[1.0,0.0],[0.6666666666666666,0.3333333333333333],[0.0,1.0],[1.0,0.0]]},{"children_left":[1,2,-1,-1,-1],"children_right":[4,3,-1,-1,-1],"feature":[0,0,-2,-2,-2],"threshold":[23.299999237060547,21.774999618530273,-2.0,-2.0,-2.0],"values":[[0.9444444444444444,0.05555555555555555],[0.75,0.25],[1.0,0.0],[0.0,1.0],[1.0,0.0]]},{"children_left":[1,-1,3,-1,5,-1,-1],"children_right":[2,-1,4,-1,6,-1,-1],"feature":[1,-2,2,-2,2,-2,-2],"threshold":[0.6324999928474426,-2.0,13.81981337070465,-2.0,26.551400184631348,-2.0,-2.0],"values":[[0.9444444444444444,0.05555555555555555],[1.0,0.0],[0.8571428571428571,0.14285714285714285],[1.0,0.0],[0.5,0.5],[0.0,1.0],[1.0,0.0]]},{"children_left":[-1],"children_right":[-1],"feature":[-2],"threshold":[-2.0],"values":[[1.0,0.0]]},{"children_left":[-1],"children_right":[-1],"feature":[-2],"threshold":[-2.0],"values":[[1.0,0.0]]},{"children_left":[-1],"children_right":[-1],"feature":[-2],"threshold":[-2.0],"values":[[1.0,0.0]]},{"children_left":[1,2,3,-1,-1,-1,-1],"children_right":[6,5,4,-1,-1,-1,-1],"feature":[2,1,2,-2,-2,-2,-2],"threshold":[26.537400245666504,3.0291957557201385,26.326125144958496,-2.0,-2.0,-2.0,-2.0],"values":[[0.7222222222222222,0.2777777777777778],[0.5,0.5],[0.16666666666666666,0.8333333333333334],[1.0,0.0],[0.0,1.0],[1.0,0.0],[1.0,0.0]]},{"children_left":[-1],"children_right":[-1],"feature":[-2],"threshold":[-2.0],"values":[[1.0,0.0]]},{"children_left":[1,2,-1,-1,-1],"children_right":[4,3,-1,-1,-1],"feature":[0,2,-2,-2,-2],"threshold":[23.25,27.207449913024902,-2.0,-2.0,-2.0],"values":[[0.8888888888888888,0.1111111111111111],[0.6,0.4],[0.0,1.0],[1.0,0.0],[1.0,0.0]]},{"children_left":[-1],"children_right":[-1],"feature":[-2],"threshold":[-2.0],"values":[[1.0,0.0]]},{"children_left":[-1],"children_right":[-1],"feature":[-2],"threshold":[-2.0],"values":[[1.0,0.0]]},{"children_left":[1,2,-1,-1,-1],"children_right":[4,3,-1,-1,-1],"feature":[2,1,-2,-2,-2],"threshold":[26.537400245666504,2.8226194083690643,-2.0,-2.0,-2.0],"values":[[0.7222222222222222,0.2777777777777778],[0.375,0.625],[0.0,1.0],[1.0,0.0],[1.0,0.0]]},{"children_left":[1,2,-1,-1,-1],"children_right":[4,3,-1,-1,-1],"feature":[0,2,-2,-2,-2],"threshold":[23.299999237060547,27.207449913024902,-2.0,-2.0,-2.0],"values":[[0.9444444444444444,0.05555555555555555],[0.8,0.2],[0.0,1.0],[1.0,0.0],[1.0,0.0]]},{"children_left":[-1],"children_right":[-1],"feature":[-2],"threshold":[-2.0],"values":[[1.0,0.0]]},{"children_left":[-1],"children_right":[-1],"feature":[-2],"threshold":[-2.0],"values":[[1.0,0.0]]},{"children_left":[1,2,-1,-1,-1],"children_right":[4,3,-1,-1,-1],"feature":[0,0,-2,-2,-2],"threshold":[25.97499942779541,21.774999618530273,-2.0,-2.0,-2.0],"values":[[0.8333333333333334,0.16666666666666666],[0.4,0.6],[1.0,0.0],[0.0,1.0],[1.0,0.0]]},{"children_left":[-1],"children_right":[-1],"feature":[-2],"threshold":[-2.0],"values":[[1.0,0.0]]},{"children_left":[-1],"children_right":[-1],"feature":[-2],"threshold":[-2.0],"values":[[1.0,0.0]]},{"children_left":[1,-1,3,-1,-1],"children_right":[2,-1,4,-1,-1],"feature":[1,-2,0,-2,-2],"threshold":[0.6583000123500824,-2.0,28.32499885559082,-2.0,-2.0],"values":[[0.7777777777777778,0.2222222222222222],[1.0,0.0],[0.3333333333333333,0.6666666666666666],[0.0,1.0],[1.0,0.0]]},{"children_left":[1,-1,3,-1,-1],"children_right":[2,-1,4,-1,-1],"feature":[1,-2,0,-2,-2],"threshold":[0.6479499936103821,-2.0,23.299999237060547,-2.0,-2.0],"values":[[0.9444444444444444,0.05555555555555555],[1.0,0.0],[0.75,0.25],[0.0,1.0],[1.0,0.0]]},{"children_left":[1,2,-1,-1,-1],"children_right":[4,3,-1,-1,-1],"feature":[0,0,-2,-2,-2],"threshold":[23.25,21.774999618530273,-2.0,-2.0,-2.0],"values":[[0.8888888888888888,0.1111111111111111],[0.6,0.4],[1.0,0.0],[0.0,1.0],[1.0,0.0]]},{"children_left":[-1],"children_right":[-1],"feature":[-2],"threshold":[-2.0],"values":[[1.0,0.0]]},{"children_left":[-1],"children_right":[-1],"feature":[-2],"threshold":[-2.0],"values":[[1.0,0.0]]},{"children_left":[1,2,-1,-1,-1],"children_right":[4,3,-1,-1,-1],"feature":[2,1,-2,-2,-2],"threshold":[26.551400184631348,3.0291957557201385,-2.0,-2.0,-2.0],"values":[[0.8888888888888888,0.1111111111111111],[0.7142857142857143,0.2857142857142857],[0.0,1.0],[1.0,0.0],[1.0,0.0]]},{"children_left":[-1],"children_right":[-1],"feature":[-2],"threshold":[-2.0],"values":[[1.0,0.0]]},{"children_left":[-1],"children_right":[-1],"feature":[-2],"threshold":[-2.0],"values":[[1.0,0.0]]},{"children_left":[1,-1,3,-1,-1],"children_right":[2,-1,4,-1,-1],"feature":[1,-2,1,-2,-2],"threshold":[0.6583000123500824,-2.0,2.8226194083690643,-2.0,-2.0],"values":[[0.8888888888888888,0.1111111111111111],[1.0,0.0],[0.7142857142857143,0.2857142857142857],[0.0,1.0],[1.0,0.0]]},{"children_left":[-1],"children_right":[-1],"feature":[-2],"threshold":[-2.0],"values":[[1.0,0.0]]},{"children_left":[1,2,-1,-1,-1],"children_right":[4,3,-1,-1,-1],"feature":[2,0,-2,-2,-2],"threshold":[26.537400245666504,23.824999809265137,-2.0,-2.0,-2.0],"values":[[0.8888888888888888,0.1111111111111111],[0.7777777777777778,0.2222222222222222],[0.0,1.0],[1.0,0.0],[1.0,0.0]]},{"children_left":[1,2,-1,-1,-1],"children_right":[4,3,-1,-1,-1],"feature":[2,0,-2,-2,-2],"threshold":[26.551400184631348,26.924999237060547,-2.0,-2.0,-2.0],"values":[[0.8333333333333334,0.16666666666666666],[0.5,0.5],[0.0,1.0],[1.0,0.0],[1.0,0.0]]}]}